// [GENERATED] Q8.8 folded weights for firmware
#ifndef WEIGHTS_H
#define WEIGHTS_H

#include <stdint.h>

const int16_t conv1_weight[72] = {
    191, 205, -142, 70, -8, 46, 82, 129, -174, -96, -265, -137, -67, -131, -195, 147, 
    61, 219, -48, -173, -230, 462, -216, -265, 216, 77, -157, -786, -579, 956, -42, 333, 
    -300, -4, 194, 221, 421, -25, 84, -156, 334, -98, -444, 340, 6, -184, -1207, 89, 
    733, 808, -478, -740, 766, 121, 429, -658, 67, 530, 217, 803, -511, -231, -460, -94, 
    130, 264, 243, 300, -149, 38, 112, -405, 
};

const int16_t conv1_bias[8] = {
    21, -62, -31, -2, 7, 38, -2, 25, 
};

const int16_t conv2_weight[1152] = {
    -3, 9, 57, 47, -73, 48, 26, 10, -58, 23, -32, -55, -18, -42, 23, -2, 
    21, 4, -62, -22, -23, -12, -25, -13, -23, 42, -16, -6, -82, 23, -24, -41, 
    49, 51, -50, 26, -3, 28, -1, 73, -29, 13, 37, 57, -28, -37, -46, 102, 
    26, 50, -56, 19, 16, 2, -17, 15, 32, 37, -19, 39, 18, 6, 13, -2, 
    -25, 44, -9, -39, 0, -46, -12, -50, -72, -20, 18, -29, -10, 16, 18, -8, 
    35, 0, 61, -38, 87, -26, -44, 28, -7, 14, -6, 11, -68, 24, 12, 47, 
    -36, -24, 4, 24, -46, -26, -51, -47, -40, -44, 5, -22, -9, 68, -53, -56, 
    107, -8, -30, 14, 74, 45, 73, 10, 4, 24, 75, -30, -30, -39, 8, -56, 
    51, 29, 28, -31, 31, -44, 32, 1, 19, 13, 11, -1, 52, 8, 23, -15, 
    -80, -47, -36, -10, -48, 65, -45, -9, -43, 3, 64, 27, -39, 15, 21, 40, 
    -24, -28, -91, -31, 53, -52, 74, -8, 70, -48, 50, 88, 13, 77, -134, -37, 
    4, -62, -23, -53, -68, 41, -30, -16, 91, 22, 20, 50, -10, 65, 36, -15, 
    -62, 34, -53, 90, -40, -25, 21, 24, -83, 21, 19, -75, 16, 39, -13, -49, 
    7, -14, 36, -57, -34, 56, -37, -19, -48, 36, -24, -70, -18, 11, 11, 11, 
    -39, 63, -58, -28, 5, -4, -8, -20, -71, -73, 0, 59, 73, -5, 39, 52, 
    -68, 4, 29, -25, 29, -21, 4, 3, -6, -29, 4, 45, 70, 23, 65, 1, 
    16, 49, -67, -11, -13, 20, -32, 14, 111, -115, -99, -45, -36, -62, -87, -59, 
    4, -30, -40, 17, 14, 2, -37, -79, 42, 38, 39, -75, 76, 43, -14, -79, 
    35, -69, 56, 11, -13, 49, -22, 21, -1, -4, -46, -61, -14, 42, 12, 34, 
    -28, 28, 11, -31, -4, 48, 108, 0, 9, -19, 42, 15, -62, -22, 14, 14, 
    50, 2, 3, 97, 22, 2, 84, -15, 21, 35, -14, -53, -57, 29, 10, 26, 
    39, 36, -79, -74, 52, 5, -26, 5, -5, -19, -19, 19, 9, -62, 9, -5, 
    18, -54, 12, 71, 5, -62, -73, -82, 13, 9, 14, 4, 2, 25, -35, -14, 
    -24, 20, 30, 10, 38, 28, 48, 58, -5, -18, -3, -16, 44, 12, 22, 8, 
    -3, 38, -48, -21, -58, -40, -50, 22, -12, -26, 17, -22, 17, 7, -22, -7, 
    -38, -66, -4, -8, -28, -9, -62, 42, 31, 23, 18, 11, -71, 16, -8, 16, 
    13, -27, 51, -48, 37, 48, -6, 7, 11, -2, -11, -7, -39, -37, 14, 0, 
    59, 39, -17, -25, 29, -74, 37, -22, -35, 23, -24, 16, -60, -50, 45, -60, 
    22, -40, 11, -48, 3, -75, -17, -10, 44, 68, 26, -82, 70, -46, 83, 42, 
    -60, 60, -52, 65, 25, 36, 31, -10, -83, 43, -80, 19, 30, -18, 51, -31, 
    9, -103, -51, -12, 42, -3, -55, -61, 13, -17, 6, -84, -28, -7, -24, -17, 
    21, 16, 3, 53, -66, 44, -38, 59, -25, 24, -6, -60, -94, -18, -31, -33, 
    74, -28, -15, 65, -53, 60, -34, -8, -9, 0, -13, -23, -44, 62, -42, 2, 
    42, -25, -10, -52, -2, -48, -6, -18, 1, 10, -46, 63, -36, -3, -14, 12, 
    -41, 15, -56, 24, -5, 47, 65, -39, -30, -3, 71, 33, -2, -25, 28, 80, 
    69, -14, 7, 34, 39, -41, -59, -56, 6, 22, -16, -96, 31, -50, -17, 48, 
    -8, -15, -21, -1, 5, 21, -20, 13, 18, 60, 56, 1, 39, 33, 43, 38, 
    28, 58, 15, -15, -15, 13, 32, 46, 14, 27, 22, -29, 7, -108, -11, -44, 
    -12, 32, -7, 59, 24, 54, -5, 27, -20, -15, 5, -28, 22, -51, 20, 9, 
    12, -13, -63, -32, -22, 36, 15, -14, 17, 65, 33, 6, -57, -14, 25, -13, 
    60, 55, 15, 76, -35, 56, -40, 2, 34, -1, 44, -32, 16, -39, 58, 46, 
    -17, -40, -6, -49, 38, 21, -69, -1, 2, 5, -55, 71, -24, -44, 61, 14, 
    -57, 46, 50, 105, -28, -15, 63, 14, 54, -20, 36, 3, -25, -28, -26, 10, 
    -2, 46, -68, -49, 3, -88, -59, -37, -17, -84, 75, -27, 16, -16, -46, -20, 
    -33, 0, 9, -58, 7, -46, -29, 1, 8, -28, 16, 51, -34, 20, -60, -15, 
    9, 50, -40, 31, 30, 17, -27, 22, 6, -98, -41, 13, -46, -2, -60, -81, 
    -35, 9, -24, 68, 39, 33, -1, 79, -50, 51, -1, -20, -25, 63, 26, 32, 
    53, -20, -1, -11, -48, -11, 16, 16, 0, -26, 4, -46, 6, -12, 70, 32, 
    5, -53, 0, 60, 10, -10, 38, 52, -25, -19, -38, -28, 60, -13, 16, 41, 
    -46, -16, 31, -8, -28, 10, 4, -32, -32, 44, -36, -4, -46, -5, -8, 33, 
    -13, -34, 20, 60, 12, -24, -53, -20, 4, -55, -32, -31, 30, 13, 25, -54, 
    29, 38, -54, -39, 17, -8, -12, -32, -8, -23, -34, -20, 45, -16, -39, -26, 
    -36, -60, 38, 28, -51, -26, -37, 50, 66, 2, -57, 27, 74, 4, 23, -46, 
    -37, -1, -34, -5, -24, -49, -32, 33, 1, -15, 28, -16, -35, -17, 31, 11, 
    -1, -29, 6, -51, -76, -6, -75, 27, -21, 23, -26, 82, -42, 63, -42, -20, 
    -42, 7, -43, 17, 7, -55, -68, 18, -90, -59, -45, 18, 24, 5, -40, 46, 
    -38, 32, -59, 13, -26, -24, 48, -32, -10, -17, 21, -19, -69, 26, -14, -40, 
    51, 91, 36, 64, 0, -6, 74, 79, 0, -45, 59, 60, -75, 50, 86, 84, 
    16, -11, -35, -8, 30, -16, -10, 10, 13, 37, 15, -54, 20, 0, -10, -28, 
    19, 32, -29, 59, 27, 30, -19, -41, -27, -20, -23, -8, 49, -38, -47, -43, 
    2, -48, -40, -56, -15, 82, -98, -61, -17, -45, -52, 51, -33, -42, -2, -54, 
    -15, -31, -3, -24, 11, -67, 2, -26, 19, 51, -5, 18, -23, 46, -60, -21, 
    29, 39, 46, 39, 5, -2, 17, -93, -19, 93, -91, 54, -40, 50, 2, -58, 
    23, 17, -52, 6, -57, 8, -53, -26, -47, -11, -42, -45, -17, -38, -27, 22, 
    30, 33, -18, -41, 17, 18, -25, 11, 39, 54, -8, -34, 64, -37, -5, -24, 
    -46, 23, -32, 38, -19, -1, 24, -14, 7, 62, -54, 21, -42, 18, 41, 0, 
    -83, -86, -7, 0, -14, 50, 22, 1, -32, 10, -46, 10, -17, -19, 0, 3, 
    -27, -34, 55, 9, 13, -25, 57, -51, 11, 41, 48, -19, -63, 48, -33, -74, 
    52, 70, 51, 5, -40, 6, -35, -8, 53, -36, -25, -70, -17, 3, 10, -62, 
    -36, 47, -43, -37, -2, 72, 65, -65, -100, -62, 30, -17, -30, 13, -25, -7, 
    -26, 33, 32, -3, 69, -7, 38, 35, 11, -44, 1, -89, -70, 8, -56, -17, 
    -14, 12, -51, -42, 38, 39, -38, -1, 39, -5, 34, -1, 56, -25, -53, 3, 
    
};

const int16_t conv2_bias[16] = {
    20, -94, 77, 265, -169, -6, 148, 54, -255, 209, -150, 237, -46, 285, 145, 230, 
    
};

const int16_t conv3_weight[4608] = {
    10, 8, 29, -41, 7, 38, 49, 30, -30, 3, 45, 5, -1, -80, -2, 14, 
    6, 12, -61, 27, -49, 35, 2, -3, -23, 0, -69, 31, 12, -4, -49, 48, 
    -1, -30, -36, 13, 2, 13, -24, -79, -31, -54, 42, 16, 27, -35, 38, -35, 
    38, -55, -1, 26, 31, -99, 12, -48, -5, -11, -57, 29, -90, -47, 111, -17, 
    -17, 85, 31, -21, -79, -16, 19, -11, -38, -19, 47, -16, 21, -79, 62, 31, 
    -75, 1, 26, -34, 14, 56, 62, 30, -16, -58, 29, -81, -29, 40, -4, 37, 
    24, 42, -2, -73, -33, 17, 17, -87, 70, 28, -26, -78, -47, 30, -13, 4, 
    21, 61, 6, 38, 29, 21, 46, 43, -77, 8, -127, -26, -43, 74, 4, -36, 
    -8, -64, -22, -16, -27, -60, -47, -29, -23, -40, -44, -14, -95, -49, -91, -37, 
    -46, -82, 32, -2, -55, 17, -40, 2, -67, 8, -38, 15, 16, -29, 14, -11, 
    -14, 24, 32, 53, 34, 1, -36, 56, -100, 13, 6, -6, -8, 10, -35, -8, 
    -71, 41, -11, 38, 23, -68, 0, 23, -39, 59, 3, 2, -12, 96, -24, 10, 
    -49, -28, 21, -2, 51, -33, 96, 12, -53, -21, 5, 28, 2, -10, 29, -10, 
    52, -17, 43, -62, 74, -32, 61, -13, 23, 17, -4, 15, 29, -47, -18, 56, 
    -19, -15, 15, -65, -22, 46, -61, -49, 20, 54, 26, -14, -61, 30, -24, 19, 
    -9, 54, 0, -48, -23, -5, -17, -112, -3, -10, -27, 49, -10, -18, -26, 44, 
    154, 37, -104, 57, -74, -44, 30, -6, 49, -64, 16, 49, 6, -48, 6, 29, 
    26, 69, -84, 12, 32, 53, -5, -52, -8, 56, -62, 45, -7, 36, -40, -16, 
    47, 28, 17, 39, 84, -6, 17, 34, -30, 1, 21, -14, -5, 123, -39, 64, 
    -12, 6, -35, 55, 0, 15, -9, -41, 2, -118, 15, 2, 25, -59, -40, -17, 
    31, 59, 10, 21, 65, -22, 10, -32, -37, 39, -46, -1, -47, 10, 57, 38, 
    45, 52, 42, 105, -30, -16, -15, -17, 47, -56, 65, 20, 40, 30, 71, 31, 
    11, -26, 31, -1, 26, -19, 81, 35, -25, -31, 28, -34, -40, 15, 55, -21, 
    -31, 38, -48, -32, 21, -18, 42, 8, 43, 23, 8, -65, 1, -7, -21, 39, 
    -24, 33, -30, 42, -56, 80, 14, 52, -22, -54, -51, -39, 38, -27, 4, 0, 
    24, 1, -44, 6, 5, 35, -39, 38, -4, -7, -3, -35, -18, 57, 54, 12, 
    -52, -41, 18, 7, -24, -75, -42, 27, -9, -45, -19, 0, -22, 27, -77, -14, 
    -92, 96, 15, 25, 42, 0, -33, -28, 31, 57, 12, 6, 81, -13, -76, -88, 
    13, 30, -65, 109, -46, 66, 15, 7, -8, 0, 19, 9, 20, 16, 4, 2, 
    -37, 9, 46, 24, -67, -36, 3, 80, -80, 63, 37, -9, -17, -5, 75, 69, 
    14, 3, -36, -55, -57, -3, 5, 56, -80, -10, 36, -28, 47, 14, 25, 29, 
    -37, 2, -48, 11, 21, -26, 49, 89, -92, 13, 16, -27, -3, -73, -53, -40, 
    14, -8, -95, -22, 18, -74, -58, 33, 26, 116, 6, -47, -26, 28, 11, -9, 
    -35, 16, -48, -64, -16, -27, 11, 83, -17, 16, -27, 13, -56, 20, 26, -4, 
    27, -14, -9, -83, -43, -87, -53, 48, -5, -13, -58, 38, -71, 19, 111, 19, 
    46, 47, -54, -99, -28, 65, -15, 149, -2, 27, 40, -18, -13, 8, 20, 13, 
    23, 18, 65, 41, 45, -36, -36, -26, -42, 21, 19, -24, -31, 49, 15, 26, 
    -14, -31, -107, -19, -24, -57, -2, -17, -59, 73, -7, -78, 4, 19, -7, 34, 
    -12, 1, 12, 36, -55, -24, 37, -23, -13, 30, -43, 11, 80, -20, -24, -15, 
    -44, 17, -13, -5, 51, -3, -62, -6, -8, 3, -64, 10, -5, -9, 14, -26, 
    -9, -71, 42, 36, 46, 29, -18, 21, -25, -49, -11, -17, 11, -54, 74, -32, 
    -14, 69, 14, 2, -11, -37, -50, 33, -12, -47, 66, 94, 6, -29, -30, -16, 
    13, -29, 12, -23, -85, 20, -21, -42, -1, 52, -10, -42, 23, 21, 59, -6, 
    57, 64, 11, 4, 1, 4, 20, 18, 20, -14, -61, -59, -29, -24, 46, -43, 
    -81, 0, 30, 23, 15, -44, -76, -68, -28, -30, -69, -1, 14, 33, -69, -1, 
    -49, -7, 44, -60, -11, 93, -39, 40, -75, -68, 59, 91, -13, -4, -83, -18, 
    -41, -38, -89, 36, 40, -99, 58, 5, 12, 58, 7, 1, -104, 20, -64, -71, 
    59, -47, -49, 35, -7, -18, -35, 11, 35, 73, 35, 145, -94, 4, -3, -43, 
    -84, -46, 44, -2, 79, -74, 34, 30, -43, 46, 12, -29, -20, -10, -21, 27, 
    -48, 42, 32, -48, -5, 2, -79, -25, -38, 52, -18, -56, -32, 5, 29, 35, 
    -25, -29, -55, 13, 28, 5, 6, 14, -15, -1, -71, -56, 32, -6, 85, 45, 
    -35, 11, -9, 37, -37, 26, 1, 38, 14, -30, -15, 13, 8, 20, -53, 50, 
    -4, 27, -15, 66, 35, 44, -43, -68, 8, -29, -53, -61, 25, -99, 47, 20, 
    72, 85, -21, 16, -25, 52, 36, 38, 37, 16, 24, 19, -76, -72, 36, -44, 
    -30, 103, 36, -60, 26, 7, -16, -49, 19, 59, 20, -50, 50, -27, -25, -21, 
    -62, 81, -27, 14, -15, 27, 80, -22, 20, -6, 18, -86, 41, -53, -24, -67, 
    -32, 4, 121, -10, 80, -48, -35, 27, -52, -25, -50, -71, 18, -7, 18, -45, 
    -67, -5, 6, -88, 68, -26, 49, 77, 41, -23, 52, 1, 56, 25, -108, 14, 
    6, -33, 52, 62, -29, -29, -26, -2, 34, -86, -28, -29, 1, 36, -48, -34, 
    22, -64, -33, 82, 50, 19, -40, -16, 32, -35, -5, 28, 4, -17, -21, 16, 
    31, 74, -65, 4, 23, 17, -22, -49, -16, -71, 54, 35, -7, -24, -16, 12, 
    73, -52, -4, -21, 51, -49, 100, 27, -70, 47, 9, -14, -59, -22, 6, -31, 
    -14, -19, 68, 104, -44, -32, 61, 15, -22, 10, 52, -67, 33, -33, 14, -41, 
    34, 53, 28, 34, -44, -6, -9, 52, -49, -69, -50, 77, 6, -2, 8, -57, 
    -87, -7, -39, -73, 88, -30, 17, 30, -20, 34, 72, 29, -20, 58, -4, -60, 
    28, 56, -29, -30, 40, 46, -13, 1, 34, -86, 52, -19, 11, 40, 34, -44, 
    41, -39, 12, 27, -20, 25, -7, 42, -35, -37, -26, 53, -33, 62, 32, -21, 
    29, -49, 22, -7, 9, 12, 43, 1, -49, 25, 12, -45, 18, -20, -23, -27, 
    2, 57, -62, 66, 47, 53, -28, -24, 20, -2, -73, -8, -1, -30, -61, 38, 
    -1, 48, 21, -2, -24, -6, 39, 21, -50, 58, 20, -15, -30, 42, -5, -14, 
    -31, 50, -88, 25, 53, -35, -83, -117, 81, 20, 26, -2, 4, 20, 12, 6, 
    -5, -7, 80, 79, -21, -67, 19, 41, 100, -38, -5, -48, -51, -23, 3, -12, 
    -21, -52, -15, -26, -25, -44, 14, 41, -9, 5, -20, 2, 10, -6, -33, -19, 
    -28, 14, 24, -19, -66, 47, -33, 6, 54, 8, 30, 37, 2, 47, 20, -16, 
    16, 27, -64, 42, 19, 15, -13, 3, 6, -54, -28, -33, -42, -65, -24, 4, 
    -15, -11, -7, 58, -40, 15, -8, -17, 22, 67, -2, 21, -17, -4, -31, -18, 
    -7, -33, -98, -27, 31, 49, 28, -38, 18, 52, -27, 29, 74, 71, 62, -2, 
    20, -33, 67, -10, -35, 64, 5, -16, -20, -7, 10, -9, 42, -7, -10, -4, 
    -40, 51, -7, -2, 34, -31, 40, -15, -138, -15, -68, -34, 3, 25, 14, 46, 
    7, -22, 59, 63, -40, 24, -15, 33, 5, -51, -57, 32, -57, -42, -50, -17, 
    -58, 58, 5, 2, -14, 41, 39, -71, -81, -11, 24, -24, 28, 9, 33, 21, 
    -35, -35, 4, 5, 27, 45, 21, 68, -58, 16, -11, -20, 11, -23, 34, 45, 
    -38, -1, -30, -7, -7, 43, -1, -47, -16, 10, -10, 9, -47, -5, -24, -2, 
    -9, -12, -4, 17, 37, 2, -38, 60, 102, -16, 34, -36, 20, -41, 55, 4, 
    53, 48, 8, 0, -10, 62, -23, 36, -5, 31, 31, 6, -7, -6, -53, 91, 
    16, -4, -7, -30, -66, -9, -28, 39, 65, 99, -85, -6, 71, -81, -13, 28, 
    -35, 11, 1, 47, 9, 49, 46, -32, -37, -15, -57, -39, 80, -42, -59, -13, 
    5, -26, -29, 137, 68, 80, 27, -93, -41, -45, 3, 47, -7, 6, 15, 10, 
    43, -3, 54, 24, -75, -122, 40, 56, 25, 37, 52, 0, 18, 26, 7, 51, 
    -52, -1, 35, -46, 8, 29, 33, 11, 6, -41, 22, -62, -24, -11, 10, 31, 
    -97, 39, -45, -5, -48, -63, -109, 83, 61, 17, -43, -34, 26, 66, 42, -92, 
    -42, -55, -64, 21, 27, -5, -134, 84, -23, 16, -28, -45, 37, 85, -75, -31, 
    -66, 2, 5, 55, 118, 5, -15, -12, -24, -43, 20, 6, -23, 27, -36, -37, 
    60, 14, -45, -32, -44, 23, 45, 55, -42, -7, 33, -16, 49, 2, -31, 48, 
    70, 25, -59, 7, 10, 16, -31, -54, -22, -66, 54, 73, 26, -33, 13, 14, 
    27, -61, 23, -114, 46, -53, 42, -39, -87, -48, -14, -57, 9, -39, -18, -41, 
    14, 3, -90, -4, 21, -40, 31, 6, 24, -84, -15, -58, 12, 109, -23, 2, 
    -20, -73, -23, 69, 76, 35, -27, 124, 16, 30, -28, 97, -17, 108, 48, 78, 
    57, 57, -13, 23, 40, -9, -42, -24, 70, 13, 17, 48, -28, -55, 27, 48, 
    -53, 10, 34, -33, -48, -52, 10, 94, -32, 7, 77, -38, -41, -21, -82, 15, 
    63, -8, -9, -3, 44, 23, 69, 9, 9, -36, -50, 34, -33, 9, -17, -67, 
    109, -10, 82, -6, 32, 10, 40, 10, -28, -35, 6, 61, -3, 7, -14, 64, 
    -6, -72, -40, 42, -60, 2, 5, -31, 9, -51, 43, -4, -36, -18, 5, 11, 
    60, 11, 46, -18, -16, 28, -35, -41, 6, -65, -5, 21, -34, 7, 23, -32, 
    -23, 66, 20, -65, -17, 120, -58, -49, 45, -32, 13, -24, 19, 37, 19, 10, 
    -51, -70, 112, -2, -30, 70, 19, 41, 4, -40, -29, 41, 74, -8, -51, 1, 
    -10, -68, -52, 23, 73, -35, 10, -34, 89, -17, 148, 10, -22, -27, 36, 21, 
    53, -67, 31, 79, 84, -6, -15, 14, -45, 25, 5, -18, -72, 63, 30, -39, 
    46, -42, -63, 69, -57, 47, -29, -29, 52, 77, -16, 0, 2, -42, 15, 17, 
    -81, 95, 18, 83, -112, 6, -1, -9, 43, -18, -21, -2, 76, -65, 32, -32, 
    13, 11, -61, 54, 43, 55, -24, -74, -21, -61, -32, -16, -20, -35, -80, 5, 
    21, 72, -32, 25, -18, 3, 17, -3, 40, -3, 38, -44, 41, -15, 53, 31, 
    -8, -62, -9, -70, -7, -83, 26, -27, -6, -49, -112, -42, 40, 10, -9, -12, 
    -2, 84, -16, 133, -24, -42, 56, -114, 13, -9, -105, 10, 12, 16, -16, -34, 
    41, 9, 42, -43, 10, -13, 102, -39, 21, -29, -127, -33, 78, 20, -89, -47, 
    -48, 56, 45, 41, 63, 95, 35, -44, -33, 4, -81, -15, 61, -41, 89, -27, 
    3, 41, -129, 8, 42, -2, -9, 1, -86, -62, -16, -2, 38, -18, -2, 42, 
    0, 59, 19, -5, 12, -35, 13, 4, -26, 2, -3, 3, 11, 25, 1, 1, 
    58, 24, -60, 13, 47, -17, -18, -1, -48, 33, -17, 28, -41, -56, -38, -74, 
    -13, -81, 21, -11, -30, 16, -6, -59, 4, 40, -28, -12, -5, -4, -54, -52, 
    -51, 31, -29, 18, 4, -23, 34, -60, 19, 12, 13, -5, -28, -26, 41, -34, 
    33, -17, 7, -13, 53, -42, 35, -9, -45, -68, -91, -14, -50, -71, -40, -103, 
    -14, 49, 30, 7, -13, -51, -72, 51, 7, -38, 7, 34, -26, 43, -36, 26, 
    -40, 2, 15, 4, -39, 19, 12, 3, 17, -15, 6, 23, -6, 24, 6, 29, 
    10, 9, -51, 19, 36, -10, -63, -6, -17, -38, 19, 15, -47, 28, -41, -11, 
    -59, -2, 41, 15, 30, -44, 4, 2, -46, -67, -4, -34, -82, -25, 11, -49, 
    42, 35, -1, 31, -35, 86, -37, -45, -93, -1, 29, 0, -10, 51, -6, -46, 
    -59, 32, -10, 23, -9, 43, -46, 17, 16, -71, 13, 40, -18, 5, -48, 43, 
    -6, 22, 49, -7, 50, -1, -16, -20, 32, 23, -8, 8, -91, -41, 16, 26, 
    -8, 39, -9, -34, 16, 36, -63, -84, -71, -28, -8, -47, -80, 52, -32, -14, 
    77, 26, 28, -9, -32, 22, -21, 35, 54, 6, 11, -13, -61, -21, 20, -3, 
    5, -26, -4, 4, -25, -67, 80, 94, 28, 20, 50, -65, 1, -32, 80, -5, 
    4, -45, -34, 56, 23, -29, 4, 45, -2, -53, 37, 35, -68, 27, 20, -14, 
    -12, -5, -26, 17, 29, -10, -8, 48, -2, -65, 22, 18, 77, 42, -10, -32, 
    -14, 64, -44, -51, -1, -90, 5, -13, 40, -21, 59, -88, -16, -34, -80, -28, 
    4, 11, -6, -81, -56, 38, 13, -60, -3, -42, 45, -24, -55, 16, 30, 76, 
    59, -45, 24, -16, -14, -7, -37, 74, 34, 38, 15, -14, -34, -12, 4, -40, 
    -54, -95, -91, 31, -22, 53, 63, 72, -5, 59, 4, 72, -51, 37, -81, -48, 
    -59, -9, -7, 3, -61, 78, 29, 24, 7, -7, 8, -63, 20, -29, 28, 42, 
    -15, -43, 20, -6, -50, -57, 55, -6, 85, -57, -64, 22, -26, -22, -58, 77, 
    -27, -35, 9, -70, -4, -13, 40, 60, -26, 64, -43, -73, 25, 38, 5, 46, 
    -4, 81, -9, -14, 8, -8, 24, 16, 35, -19, 8, 31, -90, 54, 45, 4, 
    -1, -13, 20, 74, 4, 89, 23, 19, -19, -51, 76, 4, 6, -44, 22, 54, 
    -32, -67, -68, 27, -65, -40, 33, 22, -25, 69, 3, 10, -121, -67, -97, 20, 
    -16, -47, 73, 11, 11, 0, -3, 11, -19, -1, -58, -17, 34, -16, -49, -37, 
    -18, 1, 28, -60, -23, 22, -27, -28, -49, 56, 32, 27, 49, 91, -31, -13, 
    -45, 66, 56, 7, -6, -19, -65, 3, 35, 6, 14, 59, -21, -42, -21, 62, 
    62, 14, 100, 18, 25, 50, -46, 18, 13, -69, -38, 2, -50, 42, 63, 19, 
    -91, -22, 16, 44, 18, 104, 23, 14, 54, -16, -8, 25, 23, 26, 22, 22, 
    -24, 16, 77, 17, -55, -18, -45, 0, -23, 14, 27, 29, 41, -44, -18, -16, 
    -15, -20, -1, 7, -6, -16, 1, 12, 2, 4, 70, -56, 66, -34, 14, -6, 
    33, 18, 20, 33, 27, 46, -39, -61, -34, 34, 74, 12, -28, -99, -35, 50, 
    -46, -22, 23, -4, 35, -41, -29, 5, 17, 48, -38, 15, 43, 36, -32, -8, 
    31, 44, -34, -4, -79, 6, -40, 22, 10, -20, 29, 32, 50, -47, -31, 26, 
    -11, -26, -70, 46, 3, 133, 22, -57, 0, -17, 0, -49, -70, 7, -14, 63, 
    -8, -77, 45, -19, -12, 16, 36, 59, 4, -2, -16, -26, -16, -16, 24, -48, 
    28, -54, 6, -34, -19, -19, 53, 46, -61, 30, 10, -50, -12, -3, -12, 16, 
    16, 49, 24, -28, 24, 55, 9, 47, -25, -30, -36, 44, 2, 16, 22, 38, 
    -53, -13, 17, -39, 36, -27, 33, -15, -8, -84, 37, 39, 12, 31, 32, -30, 
    -21, -47, -74, -61, 39, 4, 19, 16, -10, -55, 49, -45, -14, -74, -17, -46, 
    9, -22, 24, -38, 64, -56, -61, 21, 71, 10, -10, -19, -32, 66, 51, 27, 
    -2, -23, -46, -53, -10, -36, 5, -11, -30, -23, 61, -15, 63, 35, 17, 14, 
    -15, 8, -62, -54, -15, 26, 35, -28, 19, 98, -6, -30, -16, -4, 22, -26, 
    64, -9, 35, -43, 38, -46, 24, -19, -64, -2, 17, -19, 26, 18, -81, -67, 
    -6, 45, 32, -14, -20, -12, -58, 10, -43, -28, -42, 42, 34, 7, 37, 51, 
    -83, -5, 18, -40, -21, 11, -6, 60, -22, -40, -63, -73, 9, 33, 28, -14, 
    -26, -28, 10, -63, -16, 47, -62, 30, -47, 130, -36, -94, -6, 48, 46, 30, 
    -42, 12, -28, -6, -42, 0, -48, 17, -17, -19, 20, 23, 49, 18, -23, -112, 
    -48, -28, 8, -35, -92, 45, 22, 52, 60, -72, 40, 17, -62, 33, -6, 87, 
    72, -33, 51, -4, -44, 38, 67, 23, 92, 15, -58, -25, -70, 18, -2, 34, 
    62, 55, -71, 18, -12, -3, -32, -63, 15, -68, -57, -30, 61, 13, -9, 59, 
    2, -77, 119, 28, -78, -20, 76, 12, -35, -43, 34, 70, -68, -32, 39, -72, 
    48, 86, -63, -23, 17, 38, -4, 57, -10, -51, 5, 80, 9, 84, 30, 40, 
    -32, 7, -65, -64, -7, -97, -1, 17, -43, 4, -41, -40, 42, -57, 59, -121, 
    30, 2, 15, -52, -13, 49, -15, -18, -58, -1, 15, 31, -68, 88, -33, 71, 
    -14, -29, 74, -63, -28, -92, 36, -116, 43, -30, 19, 7, -29, 49, 26, -33, 
    -43, -76, -51, -20, -27, -18, -15, 26, 73, 82, -39, 18, 17, -9, 13, 8, 
    61, -31, 60, -55, 91, 29, 100, 50, -83, -12, -3, 24, -21, -13, -26, -29, 
    31, 15, 0, 100, -8, -119, 11, -21, 39, -38, 14, 21, -15, 16, 10, -33, 
    -39, 26, 2, 36, 18, 47, 48, -13, 81, -23, 21, 32, -44, -41, -44, 79, 
    -27, -12, -45, -19, -28, -15, 53, -49, -41, 18, -32, 2, 22, -17, 76, 31, 
    -22, 8, 30, -59, -3, -54, 37, -79, 51, 14, -62, -101, 103, 30, 53, 24, 
    -41, 67, -25, -67, -20, 17, 76, -8, -65, -42, 8, -43, -2, -24, 50, 17, 
    -4, -32, 1, -32, -55, -133, -9, -8, 1, -5, 28, -40, -8, -8, 55, -93, 
    -5, 110, 25, -91, 82, 56, -6, -1, -131, -31, 9, 10, 20, 26, -1, 39, 
    -40, 47, 38, 13, 12, 70, 43, 82, -25, 6, -29, 16, -114, 25, 16, 36, 
    -21, 38, 33, 17, -15, 73, 25, -39, -4, 8, -14, 29, 55, -13, 92, 79, 
    -81, -31, -11, 4, 29, 13, 35, -47, -40, 64, -17, 35, 26, 92, -80, 2, 
    51, 62, 45, -65, -26, -33, -65, 30, 8, -72, -4, 62, 80, 25, -20, -30, 
    44, -43, 10, 28, 34, -51, 46, 32, -1, 9, -11, 15, 60, -25, -43, 31, 
    -33, -27, 15, -81, 56, -20, -17, 60, -18, -8, -57, 22, 18, 11, 2, -55, 
    75, -33, -3, -53, 9, -19, 25, -64, -58, 25, -5, -28, 70, -83, 43, 17, 
    -22, -31, -30, 28, 27, -35, -8, 57, -39, 6, 47, -39, -24, -37, -34, 16, 
    4, 89, -80, 65, -12, 32, 19, 10, 4, 48, 30, 33, 10, -4, 13, 6, 
    -58, 27, -76, -30, -3, 27, -51, 22, 3, -17, 42, 20, 21, 11, 30, -28, 
    -4, -2, 29, -83, -30, 70, 51, 10, 46, 6, 62, 41, 23, -30, 36, 10, 
    20, -39, 8, -34, -30, 9, 13, 18, 18, 20, 46, 54, 1, 15, -59, -59, 
    -15, -9, 81, 30, 31, 13, 54, -4, -28, 69, 42, -81, -42, -53, 13, 8, 
    29, -4, 36, 38, -14, 7, 38, -42, 37, -4, -18, -18, 2, -8, 56, -22, 
    2, -13, 9, -39, -23, -8, 16, 6, -75, 38, -15, 13, 7, -11, 8, 12, 
    -92, 13, -68, 30, -19, 2, -17, 11, -29, 38, -41, -10, 62, -31, 36, -35, 
    -23, 15, -13, 28, 61, -58, 1, 37, 78, 1, 9, 4, -13, -41, 3, 18, 
    23, -31, 16, 34, 57, -10, -53, -55, 27, -36, 9, -39, -25, 43, -28, -15, 
    -15, 68, 34, 9, -19, 12, -17, 18, -25, 112, -12, -23, -39, 7, 20, -38, 
    18, 78, 18, 8, 54, -123, 84, 87, 90, -1, 3, -67, 23, -60, 59, -17, 
    -6, 51, -79, -30, -14, -17, 26, 29, -1, -20, 5, -38, 41, -33, -8, 36, 
    19, 14, 24, 74, -62, -7, -95, -23, -14, -27, -36, -1, 32, -33, 66, 67, 
    -12, 99, -59, 1, 44, -32, -16, 24, -10, -61, -13, -94, 20, 7, 13, -57, 
    -41, 68, 92, 73, 3, 10, -22, 4, 11, 6, 9, 36, 12, 64, -107, -2, 
    -24, 40, 56, -16, -4, 2, -41, -42, -51, -14, -6, -66, -28, 24, 6, 25, 
    -31, 10, 19, 39, 17, 14, 21, -49, 4, -32, -8, -5, 27, 6, -22, -5, 
    -56, 61, 45, -51, -24, -62, -58, 78, 22, -11, 25, 77, 16, -84, 40, 3, 
    -68, 19, -75, -38, -76, -23, -24, -18, -36, -31, -14, 56, -17, 53, -23, -9, 
    5, -50, -71, 36, -28, 58, -89, -5, 26, 55, -53, 110, -64, 80, -11, -33, 
    -64, -27, 45, 15, -12, -59, 23, -39, 35, -111, -52, -7, -7, 56, 54, 29, 
    -32, -16, 48, 58, 105, -60, -37, -17, -49, -4, -41, 45, 31, -22, 19, 37, 
    -29, -30, 0, 50, -61, 4, -1, 16, 25, 33, 27, 30, -14, 38, -12, 27, 
    -31, -29, 21, 31, 79, 48, -14, 2, 24, -48, 6, -32, -29, -76, 23, -5, 
    30, -4, 51, -33, -55, -35, 18, 24, -14, 55, 7, 35, -41, 45, -67, -17, 
    34, 70, 24, 19, 30, -59, -52, -48, 3, -51, 1, -73, 1, -12, 5, -17, 
    5, -17, -34, 25, 44, 31, -13, -69, -10, -55, -67, -28, -4, 38, -16, 26, 
    -41, 7, 36, -11, 61, -66, -80, 30, 10, 37, -33, 23, 9, -3, -24, -26, 
    -20, -25, -13, 69, 39, 5, 16, 64, -17, 22, -14, 38, 14, -4, -34, 7, 
    -1, 4, 30, 37, -20, 16, -92, -22, 5, -32, -40, -53, 85, 35, -63, 1, 
    -58, 3, 51, -38, 10, -16, -28, 20, 60, -16, -20, -29, -49, 53, -37, -17, 
    55, 20, 33, 15, -9, -31, 17, -38, 9, -31, 15, 23, 27, -43, -2, 15, 
    -10, -37, -27, -39, 71, -23, -2, -25, 21, -89, 35, 24, -42, 29, -34, -26, 
    -14, -103, -28, 49, -57, -45, -13, -12, 40, 39, -22, 46, -3, -12, -2, -26, 
    -42, -22, 1, 38, -17, 21, 43, 44, -27, 3, 61, 15, -3, 18, -1, 19, 
    -11, -23, -6, 32, -32, 44, 32, 22, -4, 17, 23, 0, 6, 0, 22, -1, 
    7, 29, -77, -97, 17, 92, 42, -52, -50, -8, -8, -41, -36, 46, 23, 50, 
    33, -13, -2, -20, -80, -18, 18, -11, 7, 4, 28, 7, -29, -35, 29, 7, 
    43, -29, 4, 47, 19, -23, -14, -9, 76, 0, -53, 27, 24, 27, 35, -20, 
    16, 48, -51, 5, 31, -7, -10, 36, 69, -4, 9, 74, 6, 29, 1, -59, 
    -43, -9, 50, -49, -40, 25, 7, 21, 47, -33, 45, 17, 22, -41, 29, 33, 
    18, -5, 19, 14, 28, 46, 28, -46, -54, 54, -75, 56, -12, -12, -26, -24, 
    17, -19, -53, -20, -23, 68, -77, 50, 37, 77, -1, -23, -61, 19, 9, -46, 
    64, -35, -37, 62, 69, -45, -48, 36, 77, -76, -5, -110, -11, -24, -54, 71, 
    -55, -8, -14, 59, -56, 18, -2, 30, 24, -11, -39, 7, -29, 44, -9, 50, 
    49, -99, 36, -43, -23, 2, -47, 18, -24, -14, 7, -36, -8, 3, 58, -12, 
    5, -22, -25, 24, -81, -2, -32, -5, -48, 1, -18, 85, 56, 55, -29, 12, 
    -82, 16, -3, -19, -48, -37, -7, 45, 5, -33, 28, 16, 77, -14, -26, -33, 
    2, 30, 65, 21, 52, 36, -50, -14, 22, 17, 48, 69, 3, 80, 53, 84, 
    66, -31, 11, 82, 10, 45, -20, 4, -27, 5, 35, 13, -44, -82, -16, -3, 
    33, 45, -13, -47, -33, -48, 8, 24, -45, 17, 32, 63, 34, 46, -51, 18, 
    -68, -47, 0, 32, -1, -36, 83, 3, 10, 34, -24, -58, 100, 0, 75, -23, 
    -35, 20, 31, 50, 54, -93, 13, -39, -71, 16, 29, 55, -54, -49, -61, 43, 
    36, 24, -5, -2, 29, 5, -13, -3, -2, 8, -24, 2, 11, -37, -20, 29, 
    -9, 28, 46, 87, -21, -9, 16, 4, 3, 54, -12, 74, -47, 21, -30, -27, 
    -25, -11, 38, 27, 115, -2, 68, -4, 46, 15, 32, -68, -11, 6, -26, -26, 
    -6, -102, 28, -13, -37, 9, 16, -66, 59, 10, -9, 40, -40, 29, 4, -25, 
    49, -60, -9, -27, 4, -4, 36, 66, -58, -2, 28, 70, -11, 11, -58, -29, 
    7, 60, 3, -35, 46, -33, -8, -75, 29, 2, -45, 49, 55, -5, 10, -57, 
    25, 55, 12, -56, 1, 32, 33, -52, 54, 63, 35, 15, 47, 15, -28, -79, 
    40, -17, 90, 45, 17, 11, -90, 10, -1, 32, 77, 107, 2, -33, 60, 2, 
    -12, 30, -13, 51, 66, -95, 31, -32, 16, -53, -6, -7, -31, 36, -19, 9, 
    28, -24, 44, -50, -58, -62, -5, 36, -30, -8, 1, -18, -20, 11, 14, -49, 
    -29, 2, 18, -64, -9, -26, 22, -56, 39, -28, 31, -21, -13, 45, -47, -63, 
    0, -32, 6, 39, 12, 22, 40, -12, -22, -33, 10, 0, -16, -4, 31, -32, 
    -71, -11, -20, 46, 46, 85, 42, -4, 5, -17, 49, 33, 17, -6, -71, 81, 
    91, 1, 32, -8, 40, -66, -6, 37, -94, 19, 16, 0, 77, -47, 19, 38, 
    49, -39, 5, -16, -30, -33, 7, 1, -4, 41, 15, 35, 38, -2, -38, -33, 
    -7, -28, 47, 20, 6, -38, 3, 10, -11, 19, -2, -52, 10, 42, -34, -41, 
    -8, -12, -35, -50, -95, -61, 41, -52, -95, -64, -68, -11, -12, -12, 84, -7, 
    33, -5, -26, -50, -5, 21, -24, -18, 33, -42, 12, 5, 67, 23, -64, 33, 
    -28, -42, 62, -19, -19, -24, -12, 7, 18, 39, -38, -29, 35, -40, 27, -56, 
    -31, 34, -13, 38, -2, -18, -9, 21, 14, 44, -73, 28, 25, 0, 12, 4, 
    16, -35, 27, -3, 4, -21, 5, 24, -88, 30, -2, -55, 35, 34, 45, 3, 
    39, -12, 1, 17, 16, 23, -54, -39, 50, 34, -9, 5, -13, 12, 43, 38, 
    26, 2, -31, -20, 26, -96, -37, 47, 51, 43, -9, -35, -20, -21, -73, -53, 
    51, -27, 28, -9, -85, 8, -31, -69, -10, 38, 49, 50, -19, -42, -24, -39, 
    -42, -52, 24, -65, -65, -18, 3, 54, 9, 62, -73, -12, -52, 33, -54, -101, 
    -36, -11, 0, -29, 51, 48, 18, 18, 9, 46, 18, -60, 86, -39, 65, 38, 
    46, -68, 24, -24, 65, 11, 57, 42, 37, -5, -54, 7, 6, 114, 108, -18, 
    -82, 4, -94, 21, 20, -43, 78, -55, -4, 41, -5, 4, -63, -79, 18, -12, 
    -15, -49, -25, 28, -26, 9, 15, 41, -40, 69, 38, 101, 58, 57, -113, -128, 
    65, -4, 67, 4, -46, -69, -106, 14, -67, -71, -65, 33, -53, -60, -56, 38, 
    71, 52, -2, -73, 40, 49, -44, 88, 48, 82, 10, 44, 29, 16, -74, 15, 
    -75, -9, 99, 8, -52, -56, 117, 3, -143, -48, 10, 36, -62, 31, 97, 27, 
    42, -25, -29, -18, 20, 5, -4, 37, 8, -57, -37, -32, 23, 67, 26, 9, 
    -50, -19, 38, 29, 20, 29, -36, -29, 60, -48, 44, -79, -37, 28, 14, 14, 
    9, 26, 11, -57, 33, -25, -4, 32, -61, -9, 9, 41, 4, -31, 12, -74, 
    78, -37, 29, 7, 8, -67, 29, -7, 23, -40, 5, -44, -6, -98, -40, 1, 
    -22, -9, -30, -1, 69, 52, 122, 3, -8, -1, -51, -73, -85, 46, 45, 14, 
    11, -54, 44, 29, -26, -21, 53, 14, -28, 58, 101, -1, 7, 20, 5, -20, 
    30, 70, -71, 12, 38, 5, 27, 57, -19, -25, -28, -7, -60, -2, 99, -55, 
    6, -23, -22, -24, 2, 17, -70, 1, -12, 44, -8, -89, -3, 18, 55, -14, 
    -77, -49, 57, -1, 28, -54, 85, -34, 62, 36, 61, -1, -6, 26, -72, 17, 
    
};

const int16_t conv3_bias[32] = {
    512, 10, -302, 33, 327, 155, -68, -181, 121, -349, 28, -262, 195, 663, 137, 120, 
    -299, 80, 274, 0, -219, -181, -200, 388, 216, -177, -77, -233, -226, 334, 28, -23, 
    
};

const int16_t fc_weight[1024] = {
    -7, -21, -16, 0, -13, 69, 7, 10, 18, 42, 6, 1, -4, -2, -4, 1, 
    -35, -9, -12, 21, 10, -9, -10, 12, 11, -18, 4, 5, -22, -39, 9, 40, 
    23, 13, -7, -17, 30, -24, 13, -3, 10, 32, 12, -28, 12, 4, 8, -9, 
    26, 4, -20, 0, 31, -4, -22, -18, 35, 35, -6, -26, -8, 12, 25, -20, 
    14, -17, -9, 9, 6, 47, 37, 19, 41, 1, 2, 19, -3, 19, -21, -6, 
    9, 0, -26, -11, -8, -64, -71, 1, 1, -24, -8, 11, 1, -5, -21, 23, 
    -4, 5, 40, -3, 22, 25, -24, -28, -14, -7, -20, 16, 10, 0, -8, -5, 
    13, 4, 2, -17, 15, -62, -7, -31, -4, 0, 10, 19, 2, -3, -18, -4, 
    -23, -2, 31, 18, 13, -30, 29, -16, 18, 45, -1, 26, -7, 3, 16, 0, 
    32, 30, -28, -29, -3, 4, 29, 13, 31, -20, -14, 0, 34, -4, 32, 22, 
    -18, -1, 2, 41, 0, -20, 10, -36, -18, 7, 45, -4, -8, 10, 25, -36, 
    -8, -6, 9, 6, 20, 28, -1, -30, -12, -20, -45, -14, 8, -11, -27, 18, 
    -44, 15, -14, -3, 53, 6, -13, -9, 12, 4, -5, 28, -16, -43, -6, 1, 
    10, -1, -12, 6, 1, 60, 23, 14, -7, 61, 37, 2, 16, 7, -29, -2, 
    9, 19, -1, -43, 1, 20, 14, -23, 6, 22, -12, 1, 18, -14, -8, -3, 
    -9, -37, 2, -7, -8, -10, -3, 43, -1, -10, 21, -22, 33, 16, 22, 14, 
    10, 31, 35, 11, -18, 9, 56, 18, 11, 4, -22, -18, -7, 19, -1, 10, 
    -16, -21, -20, 11, -68, -21, -24, -13, 29, 3, -20, 7, -10, -12, 12, -4, 
    -22, -36, -35, -2, -2, -12, -33, -26, 26, -21, 29, 15, 1, 7, 17, -8, 
    -18, 2, -33, 11, -27, -19, -28, 13, 22, 38, -20, 7, 31, 9, 11, -20, 
    35, -30, -22, 9, 32, 18, 31, 15, -26, -22, 8, 7, 7, -8, 17, -20, 
    -7, -17, -46, 2, 29, 1, 6, 7, -8, -3, 29, -7, -3, -27, -15, -24, 
    -26, 5, 38, 8, -12, -26, -16, 20, 24, -28, -11, -11, -3, -10, 16, 23, 
    11, -20, -21, -20, -14, -54, 16, 5, 11, -41, -2, 5, 16, 22, 33, 8, 
    4, 21, -26, 1, -14, 9, -42, 13, 6, 0, 16, -9, 39, 19, -4, 7, 
    -37, 7, 11, 11, -18, -30, -25, -20, -16, -22, -13, -30, -10, -15, 11, 1, 
    19, 17, 9, -7, 26, 30, -24, 13, -21, 30, -14, 14, 4, 30, 20, 24, 
    26, 19, -15, 9, -26, 17, -11, -7, 20, 14, 19, -10, -40, 10, 28, -21, 
    17, -29, -10, -9, -11, 16, -7, -33, 0, 26, 42, 16, -2, -12, 2, 14, 
    -22, -22, 48, -11, 18, 40, 41, -10, 5, 49, 12, -6, -20, 7, 12, -3, 
    -6, -21, 8, 24, -5, 6, -16, -27, 19, -26, -18, 56, -20, 9, 19, 35, 
    10, 18, 17, -37, -46, -9, -16, -16, -31, 25, -10, -15, 1, 11, -1, -23, 
    6, 1, -2, 4, 1, -68, -13, -7, -31, -37, -6, -10, -3, -5, 17, -2, 
    29, 22, 21, -24, 1, 15, 19, -13, -5, 22, 9, -6, 8, 41, 10, -34, 
    -16, -10, 1, 12, -24, 15, -11, 5, 0, -28, 5, 9, -1, 5, 1, 15, 
    -35, 7, 15, -1, -26, 15, 20, 4, -34, -35, 10, 29, 14, -6, -24, 12, 
    -13, 25, -6, 1, 1, -46, -42, -25, -25, -5, 7, -24, 17, -16, 6, 6, 
    0, -1, 31, 7, 7, 54, 75, 1, 4, 9, 21, -13, -1, -7, 25, -18, 
    12, -22, -40, 4, -5, -35, 27, 15, 18, 8, 7, -20, -10, 9, 12, 15, 
    -1, -14, 16, -3, -23, 59, 4, 34, 0, -21, 5, -29, -19, 20, 25, 6, 
    7, -8, -30, -22, -12, 24, -11, 6, -14, -39, -5, -17, 5, -14, -9, -12, 
    -17, -20, 22, 13, 2, -10, -24, -9, -27, 19, 16, 0, -23, -10, -27, -29, 
    15, 3, 8, -33, -12, 26, -10, 28, 31, 13, -44, 6, 2, -4, -7, 29, 
    7, -6, -22, 1, -32, -38, -7, 19, 3, 2, 46, 16, -18, 11, 8, -9, 
    48, -5, -5, 1, -54, -10, 1, 8, -13, 1, -2, -24, 21, 43, -4, -9, 
    -3, -10, 5, 13, 0, -56, -32, -14, 6, -62, -54, 6, -2, -23, 18, -7, 
    -6, -10, 19, 36, -16, -12, -17, 28, -1, -16, 16, 18, -19, 22, 10, 17, 
    8, 41, -7, 20, -3, 24, -12, -39, 9, -11, -11, 19, -30, -19, -9, 8, 
    -13, -29, -32, -20, 14, -31, -58, -19, 10, -5, 9, 5, -6, -5, 14, -2, 
    14, 11, 26, -21, 52, 12, 24, 22, -32, 3, 28, -17, -6, -4, -13, 2, 
    26, 23, 31, 5, 8, 8, 34, 15, -27, 12, -21, -1, -1, -23, -5, 6, 
    18, -5, 35, -12, 21, 7, 17, -19, -3, -32, 14, -5, -17, 3, 6, 21, 
    -29, 22, 18, 3, -21, -4, -37, -16, 30, 20, -7, -12, -12, 6, -18, 19, 
    12, 24, 49, -6, -13, -20, 13, 3, 18, -14, -27, 3, 15, 24, 10, 27, 
    4, -22, -41, -21, 16, 42, 35, -17, -13, 29, 23, 19, 5, 24, -16, -13, 
    -3, 24, 12, 21, 5, 62, -3, -12, -13, 34, 17, 9, -10, -30, -19, -21, 
    -15, -25, 26, -4, 3, -7, 40, -6, -8, 8, -15, 5, -32, -36, -5, 2, 
    34, 6, -12, -5, 4, 17, 38, 26, 19, 14, 17, 25, 23, 27, -27, -2, 
    -26, -13, -24, 10, -23, -38, 6, -11, 31, -44, 2, -15, 13, -25, -23, -26, 
    -13, -5, 3, -11, 25, -21, 10, 5, -11, -19, -19, -11, 43, -21, -25, 3, 
    -30, 21, 8, 3, -8, -11, -2, 25, -8, -26, -46, -13, 1, 27, 2, -25, 
    2, 14, -52, 9, -22, -38, -35, 6, 9, -52, -30, -2, 23, 1, -21, 11, 
    10, 20, -18, -23, 0, 1, 11, 42, -14, 7, 11, -52, 7, -17, -21, -26, 
    5, -7, -16, 30, 39, 10, 13, 5, 23, -30, 27, 27, -3, -16, -2, 32, 
    
};

const int16_t fc_bias[2] = {
    3, -7, 
};

#endif // WEIGHTS_H
